base_line/conv2d/kernel:0
(5, 5, 3, 6)
[[[[ 8.02069232e-02  2.03919206e-02  2.19162837e-01  2.65813977e-01
    -1.26514897e-01  3.16167414e-01]
   [ 1.04555212e-01  1.14768289e-01 -6.97160140e-02  3.63591492e-01
     9.15566385e-02 -2.78529584e-01]
   [ 1.43418446e-01  1.72443107e-01 -1.77623853e-01  5.47500998e-02
     1.45411110e-02 -9.76018980e-02]]

  [[ 4.44550365e-01 -6.97122291e-02  7.57520869e-02  1.81050763e-01
    -7.85835739e-03  2.16871276e-01]
   [-9.27040130e-02  1.77282378e-01  1.93607323e-02  1.39291346e-01
     9.93005559e-02 -3.07755858e-01]
   [-3.47887315e-02  2.50131130e-01 -1.23210475e-01  1.81307822e-01
    -3.09161078e-02 -1.98909074e-01]]

  [[ 4.27882463e-01 -3.48153412e-01  3.69701050e-02 -2.13092059e-01
    -9.56744850e-02  2.80819654e-01]
   [ 2.78473526e-01 -1.24173403e-01 -6.24351576e-02 -1.02623351e-01
     3.96951800e-03 -1.16731070e-01]
   [ 1.12446487e-01  1.11686803e-01 -1.76755339e-01 -1.69403568e-01
    -1.60431638e-02  1.56354144e-01]]

  [[ 2.55281150e-01 -3.42046738e-01  7.94677660e-02 -1.28798977e-01
     9.94156599e-02  1.05520852e-01]
   [ 3.28373998e-01 -2.71580592e-02 -1.30251169e-01 -1.56549141e-01
     1.32371327e-02 -1.86290041e-01]
   [-1.04463644e-01 -1.07750498e-01  3.61117609e-02 -1.75146118e-01
    -1.06738731e-01  6.43527061e-02]]

  [[ 1.00408100e-01 -2.48499960e-01  1.57772124e-01 -1.69605970e-01
    -3.07268035e-02 -1.24602459e-01]
   [ 8.29172134e-03 -1.63118556e-01 -2.05076203e-01 -2.17925593e-01
     3.89584266e-02  2.11705700e-01]
   [ 6.41216785e-02 -6.49911985e-02  7.26141483e-02  1.17920101e-01
    -6.96763862e-03  9.72491726e-02]]]


 [[[-1.07043184e-01  1.06063902e-01  2.35846881e-02  2.21502513e-01
     5.64931519e-02  2.17902899e-01]
   [-2.55142182e-01  3.73234600e-02  9.66589004e-02  8.40179436e-03
    -9.76052135e-02 -1.87323168e-02]
   [-3.30713717e-03 -7.14232102e-02 -1.86357662e-01  1.24711134e-01
     7.09573552e-03  4.54683043e-02]]

  [[-1.32128283e-01 -1.12654664e-01 -5.97608052e-02 -2.26885051e-01
     2.56685074e-02  9.17074829e-02]
   [-2.24013701e-01  1.33677632e-01 -4.81050946e-02 -1.76458582e-01
    -5.21915928e-02 -3.41927588e-01]
   [-2.14573190e-01  3.03746879e-01  1.97667032e-02 -2.67913103e-01
     1.59762144e-01 -2.16598824e-01]]

  [[-1.77699223e-01  4.94604232e-03 -1.04115970e-01 -1.00510642e-01
     7.39496155e-03  9.08077955e-02]
   [-1.20470330e-01  3.83429416e-02  1.16045652e-02 -2.03517050e-01
    -5.57858832e-02 -6.40931353e-02]
   [-3.78456891e-01  1.99862570e-01  7.86612928e-03 -1.30210742e-01
    -6.11814447e-02 -1.04471333e-01]]

  [[-1.00462064e-01 -4.75778952e-02 -1.43466741e-01  9.75817069e-03
    -1.22707173e-01 -1.00579448e-01]
   [-1.92794442e-01 -4.10036817e-02 -1.40741274e-01  2.01324120e-01
     1.45115256e-01  4.91116755e-02]
   [-3.10275435e-01 -9.12371203e-02  3.29384059e-01 -1.11653961e-01
    -1.51467144e-01  1.00433290e-01]]

  [[-1.20963462e-01 -3.18980455e-01  2.45144859e-01  1.02215409e-01
     1.51666433e-01 -4.58907485e-02]
   [-4.92252111e-02 -1.06110454e-01 -1.43976539e-01  1.03892289e-01
    -5.62393107e-02  1.45407960e-01]
   [-7.58818090e-02  3.42937447e-02  1.66550770e-01  2.68693417e-01
     2.96611153e-02  3.00757736e-01]]]


 [[[ 8.95622149e-02  1.42677456e-01  1.74500763e-01 -2.98443437e-01
    -3.06254085e-02 -3.44378240e-02]
   [-9.95735005e-02 -6.23529106e-02  9.28239152e-02 -9.43617672e-02
     2.06265539e-01 -6.23745192e-03]
   [ 9.50283930e-02 -2.45389774e-01 -3.55443001e-01 -2.25989953e-01
     1.86305288e-02  1.84981227e-01]]

  [[ 5.24640717e-02 -1.86727867e-02 -1.50928304e-01 -3.10271591e-01
    -5.87321110e-02  1.22141734e-01]
   [-3.14763635e-01  4.87041846e-02 -5.55718355e-02 -2.94129163e-01
     7.17321187e-02 -1.89193889e-01]
   [-5.16333655e-02  1.75112963e-01  6.81582838e-02 -1.95840657e-01
     1.05432339e-01 -1.82356447e-01]]

  [[-2.54287161e-02 -8.56125653e-02 -1.24975659e-01  2.08943695e-01
    -1.68267399e-01  1.63419712e-02]
   [ 1.37523621e-01  1.00360939e-03  4.41794544e-02  2.60732055e-01
    -3.76826733e-01 -2.60684609e-01]
   [-8.80730450e-02  3.14389378e-01  3.06941986e-01 -4.87490110e-02
    -1.24699965e-01 -2.55928874e-01]]

  [[-5.70925791e-03  1.06674403e-01 -1.65313005e-01  2.26855576e-01
     1.18864365e-01 -2.22509176e-01]
   [-1.74166933e-01 -1.22139074e-01 -7.80876307e-03  2.54285157e-01
     6.20939210e-02 -9.58826616e-02]
   [-2.01203488e-02  2.64664441e-01  2.09862933e-01  2.14253470e-01
     1.19698055e-01 -2.28710890e-01]]

  [[-1.08500786e-01  5.48098721e-02 -1.32962748e-01  7.36042559e-02
     5.45880049e-02  1.69449791e-01]
   [ 7.89301321e-02 -2.04818904e-01  1.18482575e-01  4.20058966e-02
     1.38187576e-02  3.38794440e-01]
   [ 1.36637539e-01 -1.33027043e-02  2.46099398e-01 -7.66494125e-02
    -4.68756966e-02  1.00353286e-01]]]


 [[[-8.32786597e-03  2.60014683e-01  6.83467463e-02 -8.05357620e-02
     8.23251829e-02  1.01859070e-01]
   [ 1.56015173e-01 -1.11569747e-01  1.63061395e-01 -1.07597016e-01
     2.14633048e-01 -1.25816062e-01]
   [ 1.84383482e-01 -2.60290325e-01 -3.47457081e-01 -2.31338173e-01
     1.39285579e-01  2.30978370e-01]]

  [[-4.87442836e-02  1.43279135e-01 -5.23337461e-02  2.12901644e-02
     6.70294464e-02  2.28431690e-02]
   [ 1.90702170e-01 -1.57695338e-01  1.89009160e-02  1.31207824e-01
     1.20530836e-01 -7.21909925e-02]
   [ 3.05153042e-01  1.42713383e-01  2.07874849e-01  1.52178049e-01
    -2.57788207e-02  3.49520706e-02]]

  [[-1.07621506e-01  2.17713580e-01 -3.73030901e-01  1.65964499e-01
    -4.14407521e-01 -8.40206221e-02]
   [ 2.79891968e-01  4.54671383e-02  7.04578031e-03  2.18657315e-01
    -5.71416736e-01 -3.41115922e-01]
   [ 1.07820518e-01  9.87314582e-02  4.69787121e-01  1.77259296e-01
    -3.06125760e-01  5.06132990e-02]]

  [[ 1.03645422e-01  4.08694558e-02 -3.21011573e-01  4.73362021e-03
     3.29113573e-01 -1.13422789e-01]
   [ 2.51479894e-01  6.65255189e-02  7.56504908e-02 -3.27818245e-02
     3.60149086e-01 -2.53907740e-01]
   [ 4.82342914e-02  2.98032552e-01  3.99820149e-01 -1.01763384e-04
     3.14692825e-01 -3.08368146e-01]]

  [[-3.05354089e-01  1.34005368e-01 -3.99568565e-02 -1.68677848e-02
    -9.88340080e-02 -1.17085231e-02]
   [ 3.89289111e-02 -7.69935083e-03  1.74729563e-02 -1.40144393e-01
     4.24490012e-02  7.63145685e-02]
   [-6.03718031e-03  2.45257765e-01  1.37954533e-01 -1.85627311e-01
    -1.78550377e-01  2.08099231e-01]]]


 [[[-6.41365424e-02  2.69867539e-01 -9.21321735e-02 -2.60797087e-02
    -1.90781262e-02 -1.67451613e-02]
   [-1.48214579e-01 -2.14423031e-01  1.84707437e-02 -8.10639411e-02
     4.45063710e-02  1.45379275e-01]
   [ 8.62900391e-02 -4.25186574e-01 -2.58111000e-01  7.70957023e-02
     1.24581017e-01  1.77043796e-01]]

  [[-7.83844888e-02  3.00665587e-01 -2.38670051e-01  2.44510725e-01
     6.44997060e-02  8.60847440e-03]
   [-1.46595061e-01 -1.68845043e-01  1.79292694e-01  3.25395800e-02
     1.36268884e-01  1.38480812e-01]
   [-3.61806229e-02 -2.16679528e-01  2.27955446e-01  2.15711996e-01
     4.74065654e-02  9.43305567e-02]]

  [[-2.32338384e-01  2.45030746e-01 -3.02552521e-01 -1.35346398e-01
    -2.93617547e-01  1.24668948e-01]
   [ 6.93911919e-03  7.03227073e-02 -3.42173837e-02 -7.17607364e-02
    -4.17541593e-01 -7.25910887e-02]
   [ 1.08889088e-01 -2.14241028e-01  2.23640203e-01 -6.28442839e-02
    -2.93515086e-01  7.69582093e-02]]

  [[ 5.95652498e-03  2.35781848e-01 -1.17566258e-01 -9.24142972e-02
     2.55420327e-01 -3.51573825e-01]
   [-1.20114177e-01 -1.25145670e-02 -1.74918082e-02 -2.37810314e-01
     5.68524785e-02 -3.29174429e-01]
   [ 1.59006342e-02 -4.72629964e-02  1.33331358e-01  6.81383386e-02
     2.39075586e-01 -2.77535141e-01]]

  [[-2.36901920e-02  9.83025879e-02 -1.44660190e-01  5.52490242e-02
     2.93912105e-02  2.02700198e-02]
   [-5.74518330e-02  8.13256949e-02 -5.78366369e-02  6.60558939e-02
     3.02124061e-02  1.66153777e-02]
   [ 8.59474242e-02 -3.49928960e-02  1.43800555e-02  7.26452917e-02
    -8.96241516e-02  2.29027167e-01]]]]
base_line/conv2d/bias:0
(6,)
[-0.38031095  0.15339616  0.08087957 -0.03616377  0.10295926 -0.25230652]
base_line/batch_normalization/gamma:0
(6,)
[0.787903   0.65532345 0.4195242  0.71359926 0.81930965 0.8936689 ]
base_line/batch_normalization/beta:0
(6,)
[-3.9701438e-01 -4.1098720e-01  1.6076051e-04 -4.5754692e-01
 -2.8836676e-01 -6.4325303e-01]
base_line/dense/kernel:0
(1536, 128)
[[ 0.08304201 -0.03183063 -0.00880292 ...  0.09128655 -0.3127916
  -0.1356898 ]
 [ 0.11006216  0.01392356 -0.08206408 ...  0.03043626 -0.38633788
   0.06035886]
 [ 0.13877201  0.03752704  0.04732966 ... -0.0010885  -0.01515776
  -0.03457874]
 ...
 [-0.31150657 -0.01553067 -0.04311037 ... -0.02583902 -0.3693569
   0.1464038 ]
 [-0.15369476 -0.03432612 -0.0930462  ...  0.29495305 -0.09816643
   0.00684852]
 [-0.10560022 -0.08543143 -0.05249237 ...  0.06615642 -0.07415552
  -0.01985892]]
base_line/dense/bias:0
(128,)
[ 0.3685271  -0.0254004  -0.03995934 -0.04505979 -0.05006136  0.15035667
  0.01250285  0.5492843  -0.03598727 -0.02936445 -0.02564203 -0.01141808
 -0.5394873   0.20235673  0.09087801  0.16225699  0.8322725   0.30440024
 -0.04439905  0.23171091  0.37737513 -0.02309923  0.11793441  0.0966531
 -0.20856841 -0.34268555  0.02398296 -0.02590672 -0.5829076   0.11827604
 -0.04677557  0.6327221  -0.02551806 -0.05432488 -0.37217474  0.20763011
 -0.44488707  0.72701764 -0.06553582  0.15124518 -0.04517285  0.0207139
  0.14397058 -0.11507624  0.57494414 -0.04084179 -0.05097081 -0.02533167
 -0.04611945 -0.02623007 -0.01304821  0.81480616 -0.49047357  0.09903961
  0.27636284  0.08015172 -0.03924085 -0.0099328  -0.05035875 -0.03109767
 -0.04522818 -0.02415112 -0.03193831 -0.01478892 -0.21009067 -0.05789408
 -0.14467482  0.45755088 -0.03515903  0.05655074  0.51004046 -0.07178156
 -0.04800319  0.3425182   0.28415492  0.0952906  -0.02415536 -0.06291731
 -0.03672135 -0.04363385 -0.04387199 -0.01739265  0.12424052 -0.02099891
 -0.33107337  0.6645985  -0.04220092 -0.02006742 -0.02281367 -0.01788242
  0.3726544  -0.32163057  0.78703487 -0.03130605 -0.01404369 -0.03088045
  0.5180354  -0.04071087 -0.0277409  -0.00768168 -0.0474589   0.6811195
 -0.02187673  0.3044578  -0.01319612  0.03874717  0.9284887  -0.03917697
 -0.04899381 -0.00886877 -0.5003582  -0.02592572  0.12056201 -0.0205709
 -0.12016012 -0.06645776 -0.03423205 -0.0214713  -0.03824333 -0.344034
  0.00909535  0.42506096 -0.02275503 -0.02780424 -0.04026399  0.41431367
  0.4326769   0.46449304]
base_line/dense_1/kernel:0
(128, 10)
[[-0.16898973 -0.33384988  0.02016934 ...  0.06748637 -0.26323438
  -0.30017695]
 [ 0.033819   -0.17388655 -0.20179184 ...  0.14902693 -0.02925625
  -0.2996129 ]
 [-0.0278896  -0.16612916 -0.02903201 ...  0.12574671 -0.12630865
  -0.10570427]
 ...
 [ 0.03619685 -0.25352752 -0.27892482 ... -0.31762505  0.06387768
  -0.05416042]
 [-0.27272382 -0.04071762 -0.00703383 ...  0.10728797 -0.0968565
  -0.22295661]
 [-0.05849833  0.0140979  -0.11787014 ... -0.31935424  0.04345652
  -0.19167459]]
base_line/dense_1/bias:0
(10,)
[-0.7117829  -0.8155759  -0.47119284  0.07936746  0.11888688 -0.28423443
 -0.31527436 -0.4971146  -0.28745595 -0.6291849 ]
